Language model created by QuickLM on Tue Apr 10 19:35:50 EDT 2018
Copyright (c) 1996-2010 Carnegie Mellon University and Alexander I. Rudnicky

The model is in standard ARPA format, designed by Doug Paul while he was at MITRE.

The code that was used to produce this language model is available in Open Source.
Please visit http://www.speech.cs.cmu.edu/tools/ for more information

The (fixed) discount mass is 0.5. The backoffs are computed using the ratio method.
This model based on a corpus of 27 sentences and 42 words

\data\
ngram 1=42
ngram 2=68
ngram 3=45

\1-grams:
-0.8867 </s> -0.3010
-0.8867 <s> -0.2406
-2.0170 A -0.2968
-2.3181 ADMIN -0.2989
-2.3181 BATHROOM -0.2406
-2.3181 DENTIST -0.2406
-2.3181 DENTISTRY -0.2406
-1.7160 DIRECTIONS -0.2334
-2.3181 DISABLE -0.2406
-2.3181 ELEVATOR -0.2406
-2.3181 ENABLE -0.2406
-2.3181 EXIT -0.2406
-2.3181 FIND -0.2968
-2.3181 FLOOR -0.2406
-2.3181 GARAGE -0.2406
-1.7160 GET -0.2926
-2.3181 HELLO -0.2406
-2.3181 HELP -0.2406
-2.3181 HEY -0.2989
-2.3181 KIOSK -0.2406
-2.3181 LANGUAGE -0.2406
-2.3181 LOCATION -0.2406
-2.3181 LOGIN -0.2406
-2.0170 MEDICINE -0.2406
-2.3181 NEUROSCIENCE -0.2406
-2.3181 NUCLEAR -0.2968
-2.3181 ORAL -0.2968
-2.3181 ORTHOPEDICS -0.2406
-2.3181 PARKING -0.2989
-2.3181 PLASTIC -0.2989
-2.3181 RADIOLOGY -0.2406
-2.3181 REQUEST -0.2968
-2.3181 RHEMUTOLOGY -0.2406
-2.3181 SELECT -0.2989
-2.3181 SERVICE -0.2406
-2.3181 STAIRS -0.2406
-2.3181 SURGERY -0.2406
-2.3181 SWITCH -0.2989
-1.8409 TO -0.2947
-2.3181 TODAY -0.2406
-2.3181 WEATHER -0.2989
-2.3181 WHERE -0.2406

\2-grams:
-1.7324 <s> ADMIN 0.0000
-1.7324 <s> DENTIST 0.0000
-1.7324 <s> DENTISTRY 0.0000
-1.7324 <s> DISABLE 0.0000
-1.7324 <s> ELEVATOR 0.0000
-1.7324 <s> ENABLE 0.0000
-1.7324 <s> FIND 0.0000
-1.1303 <s> GET 0.0000
-1.7324 <s> HELLO 0.0000
-1.7324 <s> HELP 0.0000
-1.7324 <s> HEY 0.0000
-1.7324 <s> NUCLEAR 0.0000
-1.7324 <s> ORAL 0.0000
-1.7324 <s> ORTHOPEDICS 0.0000
-1.7324 <s> PARKING 0.0000
-1.7324 <s> PLASTIC 0.0000
-1.7324 <s> RADIOLOGY 0.0000
-1.7324 <s> REQUEST 0.0000
-1.7324 <s> RHEMUTOLOGY 0.0000
-1.7324 <s> SELECT 0.0000
-1.7324 <s> STAIRS 0.0000
-1.7324 <s> SWITCH 0.0000
-1.7324 <s> WEATHER 0.0000
-1.7324 <s> WHERE 0.0000
-0.6021 A LOCATION 0.0000
-0.6021 A SERVICE 0.0000
-0.3010 ADMIN LOGIN 0.0000
-0.3010 BATHROOM </s> -0.3010
-0.3010 DENTIST </s> -0.3010
-0.3010 DENTISTRY </s> -0.3010
-0.9031 DIRECTIONS </s> -0.3010
-0.4260 DIRECTIONS TO 0.0000
-0.3010 DISABLE </s> -0.3010
-0.3010 ELEVATOR </s> -0.3010
-0.3010 ENABLE </s> -0.3010
-0.3010 EXIT </s> -0.3010
-0.3010 FIND A -0.1761
-0.3010 FLOOR </s> -0.3010
-0.3010 GARAGE </s> -0.3010
-0.3010 GET DIRECTIONS 0.0000
-0.3010 HELLO </s> -0.3010
-0.3010 HELP </s> -0.3010
-0.3010 HEY KIOSK 0.0000
-0.3010 KIOSK </s> -0.3010
-0.3010 LANGUAGE </s> -0.3010
-0.3010 LOCATION </s> -0.3010
-0.3010 LOGIN </s> -0.3010
-0.3010 MEDICINE </s> -0.3010
-0.3010 NEUROSCIENCE </s> -0.3010
-0.3010 NUCLEAR MEDICINE 0.0000
-0.3010 ORAL MEDICINE 0.0000
-0.3010 ORTHOPEDICS </s> -0.3010
-0.3010 PARKING GARAGE 0.0000
-0.3010 PLASTIC SURGERY 0.0000
-0.3010 RADIOLOGY </s> -0.3010
-0.3010 REQUEST A -0.1761
-0.3010 RHEMUTOLOGY </s> -0.3010
-0.3010 SELECT LANGUAGE 0.0000
-0.3010 SERVICE </s> -0.3010
-0.3010 STAIRS </s> -0.3010
-0.3010 SURGERY </s> -0.3010
-0.3010 SWITCH FLOOR 0.0000
-0.7782 TO BATHROOM 0.0000
-0.7782 TO EXIT 0.0000
-0.7782 TO NEUROSCIENCE 0.0000
-0.3010 TODAY </s> -0.3010
-0.3010 WEATHER TODAY 0.0000
-0.3010 WHERE </s> -0.3010

\3-grams:
-0.3010 <s> ADMIN LOGIN
-0.3010 <s> DENTIST </s>
-0.3010 <s> DENTISTRY </s>
-0.3010 <s> DISABLE </s>
-0.3010 <s> ELEVATOR </s>
-0.3010 <s> ENABLE </s>
-0.3010 <s> FIND A
-0.3010 <s> GET DIRECTIONS
-0.3010 <s> HELLO </s>
-0.3010 <s> HELP </s>
-0.3010 <s> HEY KIOSK
-0.3010 <s> NUCLEAR MEDICINE
-0.3010 <s> ORAL MEDICINE
-0.3010 <s> ORTHOPEDICS </s>
-0.3010 <s> PARKING GARAGE
-0.3010 <s> PLASTIC SURGERY
-0.3010 <s> RADIOLOGY </s>
-0.3010 <s> REQUEST A
-0.3010 <s> RHEMUTOLOGY </s>
-0.3010 <s> SELECT LANGUAGE
-0.3010 <s> STAIRS </s>
-0.3010 <s> SWITCH FLOOR
-0.3010 <s> WEATHER TODAY
-0.3010 <s> WHERE </s>
-0.3010 A LOCATION </s>
-0.3010 A SERVICE </s>
-0.3010 ADMIN LOGIN </s>
-0.7782 DIRECTIONS TO BATHROOM
-0.7782 DIRECTIONS TO EXIT
-0.7782 DIRECTIONS TO NEUROSCIENCE
-0.3010 FIND A LOCATION
-0.9031 GET DIRECTIONS </s>
-0.4260 GET DIRECTIONS TO
-0.3010 HEY KIOSK </s>
-0.3010 NUCLEAR MEDICINE </s>
-0.3010 ORAL MEDICINE </s>
-0.3010 PARKING GARAGE </s>
-0.3010 PLASTIC SURGERY </s>
-0.3010 REQUEST A SERVICE
-0.3010 SELECT LANGUAGE </s>
-0.3010 SWITCH FLOOR </s>
-0.3010 TO BATHROOM </s>
-0.3010 TO EXIT </s>
-0.3010 TO NEUROSCIENCE </s>
-0.3010 WEATHER TODAY </s>

\end\
