Language model created by QuickLM on Tue Apr 10 17:30:17 EDT 2018
Copyright (c) 1996-2010 Carnegie Mellon University and Alexander I. Rudnicky

The model is in standard ARPA format, designed by Doug Paul while he was at MITRE.

The code that was used to produce this language model is available in Open Source.
Please visit http://www.speech.cs.cmu.edu/tools/ for more information

The (fixed) discount mass is 0.5. The backoffs are computed using the ratio method.
This model based on a corpus of 26 sentences and 41 words

\data\
ngram 1=41
ngram 2=66
ngram 3=44

\1-grams:
-0.8904 </s> -0.3010
-0.8904 <s> -0.2412
-2.0043 A -0.2967
-2.3054 ADMIN -0.2989
-2.3054 BATHROOM -0.2412
-2.3054 DENTIST -0.2412
-2.3054 DENTISTRY -0.2412
-1.7033 DIRECTIONS -0.2337
-2.3054 DISABLE -0.2412
-2.3054 ELEVATOR -0.2412
-2.3054 ENABLE -0.2412
-2.3054 EXIT -0.2412
-2.3054 FIND -0.2967
-2.3054 FLOOR -0.2412
-2.3054 GARAGE -0.2412
-1.7033 GET -0.2923
-2.3054 HELLO -0.2412
-2.3054 HELP -0.2412
-2.3054 HEY -0.2989
-2.3054 KIOSK -0.2412
-2.3054 LANGUAGE -0.2412
-2.3054 LOCATION -0.2412
-2.3054 LOGIN -0.2412
-2.0043 MEDICINE -0.2412
-2.3054 NEUROSCIENCE -0.2412
-2.3054 NUCLEAR -0.2967
-2.3054 ORAL -0.2967
-2.3054 ORTHOPEDICS -0.2412
-2.3054 PARKING -0.2989
-2.3054 PLASTIC -0.2989
-2.3054 RADIOLOGY -0.2412
-2.3054 REQUEST -0.2967
-2.3054 RHEMUTOLOGY -0.2412
-2.3054 SELECT -0.2989
-2.3054 SERVICE -0.2412
-2.3054 STAIRS -0.2412
-2.3054 SURGERY -0.2412
-2.3054 SWITCH -0.2989
-1.8282 TO -0.2945
-2.3054 TODAY -0.2412
-2.3054 WEATHER -0.2989

\2-grams:
-1.7160 <s> ADMIN 0.0000
-1.7160 <s> DENTIST 0.0000
-1.7160 <s> DENTISTRY 0.0000
-1.7160 <s> DISABLE 0.0000
-1.7160 <s> ELEVATOR 0.0000
-1.7160 <s> ENABLE 0.0000
-1.7160 <s> FIND 0.0000
-1.1139 <s> GET 0.0000
-1.7160 <s> HELLO 0.0000
-1.7160 <s> HELP 0.0000
-1.7160 <s> HEY 0.0000
-1.7160 <s> NUCLEAR 0.0000
-1.7160 <s> ORAL 0.0000
-1.7160 <s> ORTHOPEDICS 0.0000
-1.7160 <s> PARKING 0.0000
-1.7160 <s> PLASTIC 0.0000
-1.7160 <s> RADIOLOGY 0.0000
-1.7160 <s> REQUEST 0.0000
-1.7160 <s> RHEMUTOLOGY 0.0000
-1.7160 <s> SELECT 0.0000
-1.7160 <s> STAIRS 0.0000
-1.7160 <s> SWITCH 0.0000
-1.7160 <s> WEATHER 0.0000
-0.6021 A LOCATION 0.0000
-0.6021 A SERVICE 0.0000
-0.3010 ADMIN LOGIN 0.0000
-0.3010 BATHROOM </s> -0.3010
-0.3010 DENTIST </s> -0.3010
-0.3010 DENTISTRY </s> -0.3010
-0.9031 DIRECTIONS </s> -0.3010
-0.4260 DIRECTIONS TO 0.0000
-0.3010 DISABLE </s> -0.3010
-0.3010 ELEVATOR </s> -0.3010
-0.3010 ENABLE </s> -0.3010
-0.3010 EXIT </s> -0.3010
-0.3010 FIND A -0.1761
-0.3010 FLOOR </s> -0.3010
-0.3010 GARAGE </s> -0.3010
-0.3010 GET DIRECTIONS 0.0000
-0.3010 HELLO </s> -0.3010
-0.3010 HELP </s> -0.3010
-0.3010 HEY KIOSK 0.0000
-0.3010 KIOSK </s> -0.3010
-0.3010 LANGUAGE </s> -0.3010
-0.3010 LOCATION </s> -0.3010
-0.3010 LOGIN </s> -0.3010
-0.3010 MEDICINE </s> -0.3010
-0.3010 NEUROSCIENCE </s> -0.3010
-0.3010 NUCLEAR MEDICINE 0.0000
-0.3010 ORAL MEDICINE 0.0000
-0.3010 ORTHOPEDICS </s> -0.3010
-0.3010 PARKING GARAGE 0.0000
-0.3010 PLASTIC SURGERY 0.0000
-0.3010 RADIOLOGY </s> -0.3010
-0.3010 REQUEST A -0.1761
-0.3010 RHEMUTOLOGY </s> -0.3010
-0.3010 SELECT LANGUAGE 0.0000
-0.3010 SERVICE </s> -0.3010
-0.3010 STAIRS </s> -0.3010
-0.3010 SURGERY </s> -0.3010
-0.3010 SWITCH FLOOR 0.0000
-0.7782 TO BATHROOM 0.0000
-0.7782 TO EXIT 0.0000
-0.7782 TO NEUROSCIENCE 0.0000
-0.3010 TODAY </s> -0.3010
-0.3010 WEATHER TODAY 0.0000

\3-grams:
-0.3010 <s> ADMIN LOGIN
-0.3010 <s> DENTIST </s>
-0.3010 <s> DENTISTRY </s>
-0.3010 <s> DISABLE </s>
-0.3010 <s> ELEVATOR </s>
-0.3010 <s> ENABLE </s>
-0.3010 <s> FIND A
-0.3010 <s> GET DIRECTIONS
-0.3010 <s> HELLO </s>
-0.3010 <s> HELP </s>
-0.3010 <s> HEY KIOSK
-0.3010 <s> NUCLEAR MEDICINE
-0.3010 <s> ORAL MEDICINE
-0.3010 <s> ORTHOPEDICS </s>
-0.3010 <s> PARKING GARAGE
-0.3010 <s> PLASTIC SURGERY
-0.3010 <s> RADIOLOGY </s>
-0.3010 <s> REQUEST A
-0.3010 <s> RHEMUTOLOGY </s>
-0.3010 <s> SELECT LANGUAGE
-0.3010 <s> STAIRS </s>
-0.3010 <s> SWITCH FLOOR
-0.3010 <s> WEATHER TODAY
-0.3010 A LOCATION </s>
-0.3010 A SERVICE </s>
-0.3010 ADMIN LOGIN </s>
-0.7782 DIRECTIONS TO BATHROOM
-0.7782 DIRECTIONS TO EXIT
-0.7782 DIRECTIONS TO NEUROSCIENCE
-0.3010 FIND A LOCATION
-0.9031 GET DIRECTIONS </s>
-0.4260 GET DIRECTIONS TO
-0.3010 HEY KIOSK </s>
-0.3010 NUCLEAR MEDICINE </s>
-0.3010 ORAL MEDICINE </s>
-0.3010 PARKING GARAGE </s>
-0.3010 PLASTIC SURGERY </s>
-0.3010 REQUEST A SERVICE
-0.3010 SELECT LANGUAGE </s>
-0.3010 SWITCH FLOOR </s>
-0.3010 TO BATHROOM </s>
-0.3010 TO EXIT </s>
-0.3010 TO NEUROSCIENCE </s>
-0.3010 WEATHER TODAY </s>

\end\
