Language model created by QuickLM on Tue Apr 10 16:13:03 EDT 2018
Copyright (c) 1996-2010 Carnegie Mellon University and Alexander I. Rudnicky

The model is in standard ARPA format, designed by Doug Paul while he was at MITRE.

The code that was used to produce this language model is available in Open Source.
Please visit http://www.speech.cs.cmu.edu/tools/ for more information

The (fixed) discount mass is 0.5. The backoffs are computed using the ratio method.
This model based on a corpus of 22 sentences and 36 words

\data\
ngram 1=36
ngram 2=57
ngram 3=39

\1-grams:
-0.9031 </s> -0.3010
-0.9031 <s> -0.2430
-1.9445 A -0.2961
-2.2455 ADMIN -0.2986
-2.2455 BATHROOM -0.2430
-2.2455 DENTIST -0.2430
-2.2455 DENTISTRY -0.2430
-1.6435 DIRECTIONS -0.2345
-2.2455 ELEVATOR -0.2430
-2.2455 EXIT -0.2430
-2.2455 FIND -0.2961
-2.2455 FLOOR -0.2430
-2.2455 GARAGE -0.2430
-1.6435 GET -0.2910
-2.2455 HELLO -0.2430
-2.2455 HELP -0.2430
-2.2455 HEY -0.2986
-2.2455 KIOSK -0.2430
-2.2455 LANGUAGE -0.2430
-2.2455 LOCATION -0.2430
-2.2455 LOGIN -0.2430
-1.9445 MEDICINE -0.2430
-2.2455 NEUROSCIENCE -0.2430
-2.2455 NUCLEAR -0.2961
-2.2455 ORAL -0.2961
-2.2455 ORTHOPEDICS -0.2430
-2.2455 PARKING -0.2986
-2.2455 PLASTIC -0.2986
-2.2455 RADIOLOGY -0.2430
-2.2455 REQUEST -0.2961
-2.2455 RHEMUTOLOGY -0.2430
-2.2455 SELECT -0.2986
-2.2455 SERVICE -0.2430
-2.2455 SURGERY -0.2430
-2.2455 SWITCH -0.2986
-1.7684 TO -0.2936

\2-grams:
-1.6435 <s> ADMIN 0.0000
-1.6435 <s> DENTIST 0.0000
-1.6435 <s> DENTISTRY 0.0000
-1.6435 <s> ELEVATOR 0.0000
-1.6435 <s> FIND 0.0000
-1.0414 <s> GET 0.0000
-1.6435 <s> HELLO 0.0000
-1.6435 <s> HELP 0.0000
-1.6435 <s> HEY 0.0000
-1.6435 <s> NUCLEAR 0.0000
-1.6435 <s> ORAL 0.0000
-1.6435 <s> ORTHOPEDICS 0.0000
-1.6435 <s> PARKING 0.0000
-1.6435 <s> PLASTIC 0.0000
-1.6435 <s> RADIOLOGY 0.0000
-1.6435 <s> REQUEST 0.0000
-1.6435 <s> RHEMUTOLOGY 0.0000
-1.6435 <s> SELECT 0.0000
-1.6435 <s> SWITCH 0.0000
-0.6021 A LOCATION 0.0000
-0.6021 A SERVICE 0.0000
-0.3010 ADMIN LOGIN 0.0000
-0.3010 BATHROOM </s> -0.3010
-0.3010 DENTIST </s> -0.3010
-0.3010 DENTISTRY </s> -0.3010
-0.9031 DIRECTIONS </s> -0.3010
-0.4260 DIRECTIONS TO 0.0000
-0.3010 ELEVATOR </s> -0.3010
-0.3010 EXIT </s> -0.3010
-0.3010 FIND A -0.1761
-0.3010 FLOOR </s> -0.3010
-0.3010 GARAGE </s> -0.3010
-0.3010 GET DIRECTIONS 0.0000
-0.3010 HELLO </s> -0.3010
-0.3010 HELP </s> -0.3010
-0.3010 HEY KIOSK 0.0000
-0.3010 KIOSK </s> -0.3010
-0.3010 LANGUAGE </s> -0.3010
-0.3010 LOCATION </s> -0.3010
-0.3010 LOGIN </s> -0.3010
-0.3010 MEDICINE </s> -0.3010
-0.3010 NEUROSCIENCE </s> -0.3010
-0.3010 NUCLEAR MEDICINE 0.0000
-0.3010 ORAL MEDICINE 0.0000
-0.3010 ORTHOPEDICS </s> -0.3010
-0.3010 PARKING GARAGE 0.0000
-0.3010 PLASTIC SURGERY 0.0000
-0.3010 RADIOLOGY </s> -0.3010
-0.3010 REQUEST A -0.1761
-0.3010 RHEMUTOLOGY </s> -0.3010
-0.3010 SELECT LANGUAGE 0.0000
-0.3010 SERVICE </s> -0.3010
-0.3010 SURGERY </s> -0.3010
-0.3010 SWITCH FLOOR 0.0000
-0.7782 TO BATHROOM 0.0000
-0.7782 TO EXIT 0.0000
-0.7782 TO NEUROSCIENCE 0.0000

\3-grams:
-0.3010 <s> ADMIN LOGIN
-0.3010 <s> DENTIST </s>
-0.3010 <s> DENTISTRY </s>
-0.3010 <s> ELEVATOR </s>
-0.3010 <s> FIND A
-0.3010 <s> GET DIRECTIONS
-0.3010 <s> HELLO </s>
-0.3010 <s> HELP </s>
-0.3010 <s> HEY KIOSK
-0.3010 <s> NUCLEAR MEDICINE
-0.3010 <s> ORAL MEDICINE
-0.3010 <s> ORTHOPEDICS </s>
-0.3010 <s> PARKING GARAGE
-0.3010 <s> PLASTIC SURGERY
-0.3010 <s> RADIOLOGY </s>
-0.3010 <s> REQUEST A
-0.3010 <s> RHEMUTOLOGY </s>
-0.3010 <s> SELECT LANGUAGE
-0.3010 <s> SWITCH FLOOR
-0.3010 A LOCATION </s>
-0.3010 A SERVICE </s>
-0.3010 ADMIN LOGIN </s>
-0.7782 DIRECTIONS TO BATHROOM
-0.7782 DIRECTIONS TO EXIT
-0.7782 DIRECTIONS TO NEUROSCIENCE
-0.3010 FIND A LOCATION
-0.9031 GET DIRECTIONS </s>
-0.4260 GET DIRECTIONS TO
-0.3010 HEY KIOSK </s>
-0.3010 NUCLEAR MEDICINE </s>
-0.3010 ORAL MEDICINE </s>
-0.3010 PARKING GARAGE </s>
-0.3010 PLASTIC SURGERY </s>
-0.3010 REQUEST A SERVICE
-0.3010 SELECT LANGUAGE </s>
-0.3010 SWITCH FLOOR </s>
-0.3010 TO BATHROOM </s>
-0.3010 TO EXIT </s>
-0.3010 TO NEUROSCIENCE </s>

\end\
