Language model created by QuickLM on Tue Apr 24 19:52:38 EDT 2018
Copyright (c) 1996-2010 Carnegie Mellon University and Alexander I. Rudnicky

The model is in standard ARPA format, designed by Doug Paul while he was at MITRE.

The code that was used to produce this language model is available in Open Source.
Please visit http://www.speech.cs.cmu.edu/tools/ for more information

The (fixed) discount mass is 0.5. The backoffs are computed using the ratio method.
This model based on a corpus of 58 sentences and 97 words

\data\
ngram 1=97
ngram 2=159
ngram 3=110

\1-grams:
-0.8993 </s> -0.3010
-0.8993 <s> -0.2371
-2.3617 A -0.2972
-2.6628 ADMIN -0.3001
-2.6628 ANESTHESIA -0.2425
-2.6628 AU -0.3001
-2.6628 BATHROOM -0.2425
-2.6628 BELL -0.3001
-2.6628 BON -0.3001
-2.6628 BREAST -0.2982
-2.3617 CAFE -0.2425
-2.6628 CARE -0.2425
-2.1856 CENTER -0.2403
-2.6628 CHAPEL -0.2425
-2.6628 COLLECTION -0.2425
-2.6628 CONFERENCE -0.3001
-2.6628 CREATE -0.2982
-2.6628 DENTIST -0.2425
-2.6628 DENTISTRY -0.2425
-2.6628 DESK -0.2425
-2.6628 DIAGNOSTIC -0.3001
-2.0607 DIRECTIONS -0.2392
-2.6628 DISABLE -0.2425
-2.6628 DUNCAN -0.3001
-2.6628 EAR -0.3001
-2.6628 ELEVATOR -0.2425
-2.6628 ENABLE -0.2425
-2.6628 ENDOSCOPY -0.2425
-2.6628 EVALUATION -0.2425
-2.6628 EXIT -0.2425
-2.6628 FINANCIAL -0.2991
-2.6628 FIND -0.2991
-2.6628 FIRE -0.2425
-2.6628 FLOOR -0.2425
-2.6628 GARAGE -0.2425
-2.6628 GARDEN -0.2991
-2.0607 GET -0.2972
-2.6628 GIFT -0.3001
-2.6628 GYNECOLOGY -0.2425
-2.6628 HELLO -0.2425
-2.6628 HELP -0.2425
-2.6628 HEY -0.3001
-2.6628 HUB -0.2425
-2.6628 INFORMATION -0.3001
-2.6628 INNOVATION -0.3001
-2.6628 INTERPRETER -0.2425
-2.6628 JEN -0.2982
-2.6628 KESSLER -0.3001
-2.6628 KIOSK -0.2425
-2.6628 LAB -0.2425
-2.3617 LANGUAGE -0.2414
-2.6628 LEE -0.3001
-2.6628 LIBRARY -0.2425
-2.6628 LOCATION -0.2425
-2.6628 LOGIN -0.2425
-2.6628 MANAGEMENT -0.2425
-2.3617 MEDICINE -0.2425
-2.6628 MRI -0.2425
-2.6628 NEUROSCIENCE -0.2425
-2.6628 NOSE -0.3001
-2.6628 NUCLEAR -0.2991
-2.6628 ORAL -0.2991
-2.6628 ORTHOPEDICS -0.2425
-2.3617 OUTPATIENT -0.2991
-2.6628 PAIN -0.2425
-2.6628 PARKING -0.3001
-2.6628 PATIENT -0.3001
-2.6628 PHARMACY -0.2425
-2.6628 PLASTIC -0.3001
-2.6628 PREOPERATIVE -0.3001
-2.6628 PRIMARY -0.3001
-2.6628 RADIOLOGY -0.2425
-2.6628 RAP -0.2425
-2.6628 REHAB -0.2425
-2.6628 REHABILITATION -0.2425
-2.6628 REID -0.3001
-2.6628 RELIGIOUS -0.2991
-2.0607 REQUEST -0.2403
-2.6628 RHEMUTOLOGY -0.2425
-2.6628 ROOM -0.2425
-2.6628 SEARCH -0.2982
-2.6628 SECURITY -0.2972
-2.6628 SELECT -0.2991
-2.1856 SERVICE -0.2382
-2.3617 SERVICES -0.2425
-2.6628 SHOP -0.2425
-2.6628 SPECIMEN -0.3001
-2.6628 STAIRS -0.2425
-2.6628 SURGERY -0.2425
-2.6628 SWITCH -0.3001
-2.6628 THROAT -0.2425
-2.6628 TODAY -0.2425
-2.6628 USER -0.3001
-2.6628 VASCULAR -0.3001
-2.6628 WEATHER -0.3001
-2.6628 WEINER -0.2982
-2.6628 WHERE -0.2425

\2-grams:
-2.0645 <s> ADMIN 0.0000
-2.0645 <s> ANESTHESIA 0.0000
-2.0645 <s> AU 0.0000
-2.0645 <s> CAFE 0.0000
-2.0645 <s> CHAPEL 0.0000
-2.0645 <s> CREATE 0.0000
-2.0645 <s> DENTIST 0.0000
-2.0645 <s> DENTISTRY 0.0000
-2.0645 <s> DISABLE 0.0000
-2.0645 <s> DUNCAN 0.0000
-2.0645 <s> EAR 0.0000
-2.0645 <s> ELEVATOR 0.0000
-2.0645 <s> ENABLE 0.0000
-2.0645 <s> ENDOSCOPY 0.0000
-2.0645 <s> FIND 0.0000
-2.0645 <s> FIRE 0.0000
-2.0645 <s> GARDEN 0.0000
-1.4624 <s> GET 0.0000
-2.0645 <s> GIFT 0.0000
-2.0645 <s> GYNECOLOGY 0.0000
-2.0645 <s> HELLO 0.0000
-2.0645 <s> HELP 0.0000
-2.0645 <s> HEY 0.0000
-2.0645 <s> INFORMATION 0.0000
-2.0645 <s> INNOVATION 0.0000
-2.0645 <s> JEN 0.0000
-2.0645 <s> KESSLER 0.0000
-2.0645 <s> LANGUAGE -0.1761
-2.0645 <s> LEE 0.0000
-2.0645 <s> MRI 0.0000
-2.0645 <s> NUCLEAR 0.0000
-2.0645 <s> ORAL 0.0000
-2.0645 <s> ORTHOPEDICS 0.0000
-1.7634 <s> OUTPATIENT 0.0000
-2.0645 <s> PARKING 0.0000
-2.0645 <s> PATIENT 0.0000
-2.0645 <s> PLASTIC 0.0000
-2.0645 <s> RADIOLOGY 0.0000
-2.0645 <s> RAP 0.0000
-2.0645 <s> REHAB 0.0000
-2.0645 <s> REHABILITATION 0.0000
-2.0645 <s> RELIGIOUS 0.0000
-2.0645 <s> REQUEST -0.2430
-2.0645 <s> RHEMUTOLOGY 0.0000
-2.0645 <s> SEARCH 0.0000
-2.0645 <s> SECURITY 0.0000
-2.0645 <s> SELECT 0.0000
-2.0645 <s> STAIRS 0.0000
-2.0645 <s> SWITCH 0.0000
-2.0645 <s> USER 0.0000
-2.0645 <s> VASCULAR 0.0000
-2.0645 <s> WEATHER 0.0000
-2.0645 <s> WEINER 0.0000
-2.0645 <s> WHERE 0.0000
-0.6021 A LOCATION 0.0000
-0.6021 A SERVICE -0.2218
-0.3010 ADMIN LOGIN 0.0000
-0.3010 ANESTHESIA </s> -0.3010
-0.3010 AU BON 0.0000
-0.3010 BATHROOM </s> -0.3010
-0.3010 BELL BREAST 0.0000
-0.3010 BON PAIN 0.0000
-0.3010 BREAST CENTER -0.2218
-0.3010 CAFE </s> -0.3010
-0.3010 CARE </s> -0.3010
-0.7782 CENTER </s> -0.3010
-0.7782 CENTER PREOPERATIVE 0.0000
-0.7782 CENTER PRIMARY 0.0000
-0.3010 CHAPEL </s> -0.3010
-0.3010 COLLECTION </s> -0.3010
-0.3010 CONFERENCE ROOM 0.0000
-0.3010 CREATE SERVICE -0.1249
-0.3010 DENTIST </s> -0.3010
-0.3010 DENTISTRY </s> -0.3010
-0.3010 DESK </s> -0.3010
-0.3010 DIAGNOSTIC LAB 0.0000
-0.9031 DIRECTIONS </s> -0.3010
-0.9031 DIRECTIONS BATHROOM 0.0000
-0.9031 DIRECTIONS EXIT 0.0000
-0.9031 DIRECTIONS NEUROSCIENCE 0.0000
-0.3010 DISABLE </s> -0.3010
-0.3010 DUNCAN REID 0.0000
-0.3010 EAR NOSE 0.0000
-0.3010 ELEVATOR </s> -0.3010
-0.3010 ENABLE </s> -0.3010
-0.3010 ENDOSCOPY </s> -0.3010
-0.3010 EVALUATION </s> -0.3010
-0.3010 EXIT </s> -0.3010
-0.3010 FINANCIAL SERVICES 0.0000
-0.3010 FIND A -0.1761
-0.3010 FIRE </s> -0.3010
-0.3010 FLOOR </s> -0.3010
-0.3010 GARAGE </s> -0.3010
-0.3010 GARDEN CAFE 0.0000
-0.3010 GET DIRECTIONS 0.0000
-0.3010 GIFT SHOP 0.0000
-0.3010 GYNECOLOGY </s> -0.3010
-0.3010 HELLO </s> -0.3010
-0.3010 HELP </s> -0.3010
-0.3010 HEY KIOSK 0.0000
-0.3010 HUB </s> -0.3010
-0.3010 INFORMATION DESK 0.0000
-0.3010 INNOVATION HUB 0.0000
-0.3010 INTERPRETER </s> -0.3010
-0.3010 JEN CENTER -0.2218
-0.3010 KESSLER LIBRARY 0.0000
-0.3010 KIOSK </s> -0.3010
-0.3010 LAB </s> -0.3010
-0.6021 LANGUAGE </s> -0.3010
-0.6021 LANGUAGE INTERPRETER 0.0000
-0.3010 LEE BELL 0.0000
-0.3010 LIBRARY </s> -0.3010
-0.3010 LOCATION </s> -0.3010
-0.3010 LOGIN </s> -0.3010
-0.3010 MANAGEMENT </s> -0.3010
-0.3010 MEDICINE </s> -0.3010
-0.3010 MRI </s> -0.3010
-0.3010 NEUROSCIENCE </s> -0.3010
-0.3010 NOSE THROAT 0.0000
-0.3010 NUCLEAR MEDICINE 0.0000
-0.3010 ORAL MEDICINE 0.0000
-0.3010 ORTHOPEDICS </s> -0.3010
-0.6021 OUTPATIENT PHARMACY 0.0000
-0.6021 OUTPATIENT SPECIMEN 0.0000
-0.3010 PAIN </s> -0.3010
-0.3010 PARKING GARAGE 0.0000
-0.3010 PATIENT FINANCIAL 0.0000
-0.3010 PHARMACY </s> -0.3010
-0.3010 PLASTIC SURGERY 0.0000
-0.3010 PREOPERATIVE EVALUATION 0.0000
-0.3010 PRIMARY CARE 0.0000
-0.3010 RADIOLOGY </s> -0.3010
-0.3010 RAP </s> -0.3010
-0.3010 REHAB </s> -0.3010
-0.3010 REHABILITATION </s> -0.3010
-0.3010 REID CONFERENCE 0.0000
-0.3010 RELIGIOUS SERVICES 0.0000
-0.4260 REQUEST </s> -0.3010
-0.9031 REQUEST A -0.1761
-0.3010 RHEMUTOLOGY </s> -0.3010
-0.3010 ROOM </s> -0.3010
-0.3010 SEARCH SERVICE -0.1249
-0.3010 SECURITY REQUEST -0.0969
-0.3010 SELECT LANGUAGE -0.1761
-0.7782 SERVICE </s> -0.3010
-0.4771 SERVICE REQUEST -0.0969
-0.3010 SERVICES </s> -0.3010
-0.3010 SHOP </s> -0.3010
-0.3010 SPECIMEN COLLECTION 0.0000
-0.3010 STAIRS </s> -0.3010
-0.3010 SURGERY </s> -0.3010
-0.3010 SWITCH FLOOR 0.0000
-0.3010 THROAT </s> -0.3010
-0.3010 TODAY </s> -0.3010
-0.3010 USER MANAGEMENT 0.0000
-0.3010 VASCULAR DIAGNOSTIC 0.0000
-0.3010 WEATHER TODAY 0.0000
-0.3010 WEINER CENTER -0.2218
-0.3010 WHERE </s> -0.3010

\3-grams:
-0.3010 <s> ADMIN LOGIN
-0.3010 <s> ANESTHESIA </s>
-0.3010 <s> AU BON
-0.3010 <s> CAFE </s>
-0.3010 <s> CHAPEL </s>
-0.3010 <s> CREATE SERVICE
-0.3010 <s> DENTIST </s>
-0.3010 <s> DENTISTRY </s>
-0.3010 <s> DISABLE </s>
-0.3010 <s> DUNCAN REID
-0.3010 <s> EAR NOSE
-0.3010 <s> ELEVATOR </s>
-0.3010 <s> ENABLE </s>
-0.3010 <s> ENDOSCOPY </s>
-0.3010 <s> FIND A
-0.3010 <s> FIRE </s>
-0.3010 <s> GARDEN CAFE
-0.3010 <s> GET DIRECTIONS
-0.3010 <s> GIFT SHOP
-0.3010 <s> GYNECOLOGY </s>
-0.3010 <s> HELLO </s>
-0.3010 <s> HELP </s>
-0.3010 <s> HEY KIOSK
-0.3010 <s> INFORMATION DESK
-0.3010 <s> INNOVATION HUB
-0.3010 <s> JEN CENTER
-0.3010 <s> KESSLER LIBRARY
-0.3010 <s> LANGUAGE INTERPRETER
-0.3010 <s> LEE BELL
-0.3010 <s> MRI </s>
-0.3010 <s> NUCLEAR MEDICINE
-0.3010 <s> ORAL MEDICINE
-0.3010 <s> ORTHOPEDICS </s>
-0.6021 <s> OUTPATIENT PHARMACY
-0.6021 <s> OUTPATIENT SPECIMEN
-0.3010 <s> PARKING GARAGE
-0.3010 <s> PATIENT FINANCIAL
-0.3010 <s> PLASTIC SURGERY
-0.3010 <s> RADIOLOGY </s>
-0.3010 <s> RAP </s>
-0.3010 <s> REHAB </s>
-0.3010 <s> REHABILITATION </s>
-0.3010 <s> RELIGIOUS SERVICES
-0.3010 <s> REQUEST A
-0.3010 <s> RHEMUTOLOGY </s>
-0.3010 <s> SEARCH SERVICE
-0.3010 <s> SECURITY REQUEST
-0.3010 <s> SELECT LANGUAGE
-0.3010 <s> STAIRS </s>
-0.3010 <s> SWITCH FLOOR
-0.3010 <s> USER MANAGEMENT
-0.3010 <s> VASCULAR DIAGNOSTIC
-0.3010 <s> WEATHER TODAY
-0.3010 <s> WEINER CENTER
-0.3010 <s> WHERE </s>
-0.3010 A LOCATION </s>
-0.3010 A SERVICE </s>
-0.3010 ADMIN LOGIN </s>
-0.3010 AU BON PAIN
-0.3010 BELL BREAST CENTER
-0.3010 BON PAIN </s>
-0.3010 BREAST CENTER </s>
-0.3010 CENTER PREOPERATIVE EVALUATION
-0.3010 CENTER PRIMARY CARE
-0.3010 CONFERENCE ROOM </s>
-0.3010 CREATE SERVICE REQUEST
-0.3010 DIAGNOSTIC LAB </s>
-0.3010 DIRECTIONS BATHROOM </s>
-0.3010 DIRECTIONS EXIT </s>
-0.3010 DIRECTIONS NEUROSCIENCE </s>
-0.3010 DUNCAN REID CONFERENCE
-0.3010 EAR NOSE THROAT
-0.3010 FINANCIAL SERVICES </s>
-0.3010 FIND A LOCATION
-0.3010 GARDEN CAFE </s>
-0.9031 GET DIRECTIONS </s>
-0.9031 GET DIRECTIONS BATHROOM
-0.9031 GET DIRECTIONS EXIT
-0.9031 GET DIRECTIONS NEUROSCIENCE
-0.3010 GIFT SHOP </s>
-0.3010 HEY KIOSK </s>
-0.3010 INFORMATION DESK </s>
-0.3010 INNOVATION HUB </s>
-0.3010 JEN CENTER PRIMARY
-0.3010 KESSLER LIBRARY </s>
-0.3010 LANGUAGE INTERPRETER </s>
-0.3010 LEE BELL BREAST
-0.3010 NOSE THROAT </s>
-0.3010 NUCLEAR MEDICINE </s>
-0.3010 ORAL MEDICINE </s>
-0.3010 OUTPATIENT PHARMACY </s>
-0.3010 OUTPATIENT SPECIMEN COLLECTION
-0.3010 PARKING GARAGE </s>
-0.3010 PATIENT FINANCIAL SERVICES
-0.3010 PLASTIC SURGERY </s>
-0.3010 PREOPERATIVE EVALUATION </s>
-0.3010 PRIMARY CARE </s>
-0.3010 REID CONFERENCE ROOM
-0.3010 RELIGIOUS SERVICES </s>
-0.3010 REQUEST A SERVICE
-0.3010 SEARCH SERVICE REQUEST
-0.3010 SECURITY REQUEST </s>
-0.3010 SELECT LANGUAGE </s>
-0.3010 SERVICE REQUEST </s>
-0.3010 SPECIMEN COLLECTION </s>
-0.3010 SWITCH FLOOR </s>
-0.3010 USER MANAGEMENT </s>
-0.3010 VASCULAR DIAGNOSTIC LAB
-0.3010 WEATHER TODAY </s>
-0.3010 WEINER CENTER PREOPERATIVE

\end\
