Language model created by QuickLM on Tue Apr 10 15:51:57 EDT 2018
Copyright (c) 1996-2010 Carnegie Mellon University and Alexander I. Rudnicky

The model is in standard ARPA format, designed by Doug Paul while he was at MITRE.

The code that was used to produce this language model is available in Open Source.
Please visit http://www.speech.cs.cmu.edu/tools/ for more information

The (fixed) discount mass is 0.5. The backoffs are computed using the ratio method.
This model based on a corpus of 21 sentences and 35 words

\data\
ngram 1=35
ngram 2=55
ngram 3=38

\1-grams:
-0.9082 </s> -0.3010
-0.9082 <s> -0.2438
-1.9294 A -0.2959
-2.2304 ADMIN -0.2985
-2.2304 BATHROOM -0.2438
-2.2304 DENTIST -0.2438
-2.2304 DENTISTRY -0.2438
-1.6284 DIRECTIONS -0.2349
-2.2304 ELEVATOR -0.2438
-2.2304 EXIT -0.2438
-2.2304 FIND -0.2959
-2.2304 FLOOR -0.2438
-2.2304 GARAGE -0.2438
-1.6284 GET -0.2907
-2.2304 HELP -0.2438
-2.2304 HEY -0.2985
-2.2304 KIOSK -0.2438
-2.2304 LANGUAGE -0.2438
-2.2304 LOCATION -0.2438
-2.2304 LOGIN -0.2438
-1.9294 MEDICINE -0.2438
-2.2304 NEUROSCIENCE -0.2438
-2.2304 NUCLEAR -0.2959
-2.2304 ORAL -0.2959
-2.2304 ORTHOPEDICS -0.2438
-2.2304 PARKING -0.2985
-2.2304 PLASTIC -0.2985
-2.2304 RADIOLOGY -0.2438
-2.2304 REQUEST -0.2959
-2.2304 RHEMUTOLOGY -0.2438
-2.2304 SELECT -0.2985
-2.2304 SERVICE -0.2438
-2.2304 SURGERY -0.2438
-2.2304 SWITCH -0.2985
-1.7533 TO -0.2933

\2-grams:
-1.6232 <s> ADMIN 0.0000
-1.6232 <s> DENTIST 0.0000
-1.6232 <s> DENTISTRY 0.0000
-1.6232 <s> ELEVATOR 0.0000
-1.6232 <s> FIND 0.0000
-1.0212 <s> GET 0.0000
-1.6232 <s> HELP 0.0000
-1.6232 <s> HEY 0.0000
-1.6232 <s> NUCLEAR 0.0000
-1.6232 <s> ORAL 0.0000
-1.6232 <s> ORTHOPEDICS 0.0000
-1.6232 <s> PARKING 0.0000
-1.6232 <s> PLASTIC 0.0000
-1.6232 <s> RADIOLOGY 0.0000
-1.6232 <s> REQUEST 0.0000
-1.6232 <s> RHEMUTOLOGY 0.0000
-1.6232 <s> SELECT 0.0000
-1.6232 <s> SWITCH 0.0000
-0.6021 A LOCATION 0.0000
-0.6021 A SERVICE 0.0000
-0.3010 ADMIN LOGIN 0.0000
-0.3010 BATHROOM </s> -0.3010
-0.3010 DENTIST </s> -0.3010
-0.3010 DENTISTRY </s> -0.3010
-0.9031 DIRECTIONS </s> -0.3010
-0.4260 DIRECTIONS TO 0.0000
-0.3010 ELEVATOR </s> -0.3010
-0.3010 EXIT </s> -0.3010
-0.3010 FIND A -0.1761
-0.3010 FLOOR </s> -0.3010
-0.3010 GARAGE </s> -0.3010
-0.3010 GET DIRECTIONS 0.0000
-0.3010 HELP </s> -0.3010
-0.3010 HEY KIOSK 0.0000
-0.3010 KIOSK </s> -0.3010
-0.3010 LANGUAGE </s> -0.3010
-0.3010 LOCATION </s> -0.3010
-0.3010 LOGIN </s> -0.3010
-0.3010 MEDICINE </s> -0.3010
-0.3010 NEUROSCIENCE </s> -0.3010
-0.3010 NUCLEAR MEDICINE 0.0000
-0.3010 ORAL MEDICINE 0.0000
-0.3010 ORTHOPEDICS </s> -0.3010
-0.3010 PARKING GARAGE 0.0000
-0.3010 PLASTIC SURGERY 0.0000
-0.3010 RADIOLOGY </s> -0.3010
-0.3010 REQUEST A -0.1761
-0.3010 RHEMUTOLOGY </s> -0.3010
-0.3010 SELECT LANGUAGE 0.0000
-0.3010 SERVICE </s> -0.3010
-0.3010 SURGERY </s> -0.3010
-0.3010 SWITCH FLOOR 0.0000
-0.7782 TO BATHROOM 0.0000
-0.7782 TO EXIT 0.0000
-0.7782 TO NEUROSCIENCE 0.0000

\3-grams:
-0.3010 <s> ADMIN LOGIN
-0.3010 <s> DENTIST </s>
-0.3010 <s> DENTISTRY </s>
-0.3010 <s> ELEVATOR </s>
-0.3010 <s> FIND A
-0.3010 <s> GET DIRECTIONS
-0.3010 <s> HELP </s>
-0.3010 <s> HEY KIOSK
-0.3010 <s> NUCLEAR MEDICINE
-0.3010 <s> ORAL MEDICINE
-0.3010 <s> ORTHOPEDICS </s>
-0.3010 <s> PARKING GARAGE
-0.3010 <s> PLASTIC SURGERY
-0.3010 <s> RADIOLOGY </s>
-0.3010 <s> REQUEST A
-0.3010 <s> RHEMUTOLOGY </s>
-0.3010 <s> SELECT LANGUAGE
-0.3010 <s> SWITCH FLOOR
-0.3010 A LOCATION </s>
-0.3010 A SERVICE </s>
-0.3010 ADMIN LOGIN </s>
-0.7782 DIRECTIONS TO BATHROOM
-0.7782 DIRECTIONS TO EXIT
-0.7782 DIRECTIONS TO NEUROSCIENCE
-0.3010 FIND A LOCATION
-0.9031 GET DIRECTIONS </s>
-0.4260 GET DIRECTIONS TO
-0.3010 HEY KIOSK </s>
-0.3010 NUCLEAR MEDICINE </s>
-0.3010 ORAL MEDICINE </s>
-0.3010 PARKING GARAGE </s>
-0.3010 PLASTIC SURGERY </s>
-0.3010 REQUEST A SERVICE
-0.3010 SELECT LANGUAGE </s>
-0.3010 SWITCH FLOOR </s>
-0.3010 TO BATHROOM </s>
-0.3010 TO EXIT </s>
-0.3010 TO NEUROSCIENCE </s>

\end\
