Language model created by QuickLM on Wed Apr 18 00:18:37 EDT 2018
Copyright (c) 1996-2010 Carnegie Mellon University and Alexander I. Rudnicky

The model is in standard ARPA format, designed by Doug Paul while he was at MITRE.

The code that was used to produce this language model is available in Open Source.
Please visit http://www.speech.cs.cmu.edu/tools/ for more information

The (fixed) discount mass is 0.5. The backoffs are computed using the ratio method.
This model based on a corpus of 34 sentences and 51 words

\data\
ngram 1=51
ngram 2=87
ngram 3=59

\1-grams:
-0.8934 </s> -0.3010
-0.8934 <s> -0.2341
-2.1239 A -0.2944
-2.4249 ADMIN -0.2994
-2.4249 BATHROOM -0.2416
-2.4249 CREATE -0.2961
-2.4249 DENTIST -0.2416
-2.4249 DENTISTRY -0.2416
-1.8228 DIRECTIONS -0.2360
-2.4249 DISABLE -0.2416
-2.4249 ELEVATOR -0.2416
-2.4249 ENABLE -0.2416
-2.4249 EXIT -0.2416
-2.4249 FIND -0.2978
-2.4249 FLOOR -0.2416
-2.4249 GARAGE -0.2416
-1.8228 GET -0.2944
-2.4249 HELLO -0.2416
-2.4249 HELP -0.2416
-2.4249 HEY -0.2994
-2.4249 INTERPRETER -0.2416
-2.4249 KIOSK -0.2416
-2.1239 LANGUAGE -0.2398
-2.4249 LOCATION -0.2416
-2.4249 LOGIN -0.2416
-2.4249 MANAGEMENT -0.2416
-2.1239 MEDICINE -0.2416
-2.4249 NEUROSCIENCE -0.2416
-2.4249 NUCLEAR -0.2978
-2.4249 ORAL -0.2978
-2.4249 ORTHOPEDICS -0.2416
-2.4249 PARKING -0.2994
-2.4249 PLASTIC -0.2994
-2.4249 RADIOLOGY -0.2416
-2.4249 RAP -0.2416
-2.4249 RELIGIOUS -0.2994
-1.8228 REQUEST -0.2379
-2.4249 RHEMUTOLOGY -0.2416
-2.4249 SEARCH -0.2961
-2.4249 SECURITY -0.2944
-2.4249 SELECT -0.2978
-1.9478 SERVICE -0.2341
-2.4249 SERVICES -0.2416
-2.4249 STAIRS -0.2416
-2.4249 SURGERY -0.2416
-2.4249 SWITCH -0.2994
-1.9478 TO -0.2961
-2.4249 TODAY -0.2416
-2.4249 USER -0.2994
-2.4249 WEATHER -0.2994
-2.4249 WHERE -0.2416

\2-grams:
-1.8325 <s> ADMIN 0.0000
-1.8325 <s> CREATE 0.0000
-1.8325 <s> DENTIST 0.0000
-1.8325 <s> DENTISTRY 0.0000
-1.8325 <s> DISABLE 0.0000
-1.8325 <s> ELEVATOR 0.0000
-1.8325 <s> ENABLE 0.0000
-1.8325 <s> FIND 0.0000
-1.2304 <s> GET 0.0000
-1.8325 <s> HELLO 0.0000
-1.8325 <s> HELP 0.0000
-1.8325 <s> HEY 0.0000
-1.8325 <s> LANGUAGE -0.1761
-1.8325 <s> NUCLEAR 0.0000
-1.8325 <s> ORAL 0.0000
-1.8325 <s> ORTHOPEDICS 0.0000
-1.8325 <s> PARKING 0.0000
-1.8325 <s> PLASTIC 0.0000
-1.8325 <s> RADIOLOGY 0.0000
-1.8325 <s> RAP 0.0000
-1.8325 <s> RELIGIOUS 0.0000
-1.8325 <s> REQUEST -0.2430
-1.8325 <s> RHEMUTOLOGY 0.0000
-1.8325 <s> SEARCH 0.0000
-1.8325 <s> SECURITY 0.0000
-1.8325 <s> SELECT 0.0000
-1.8325 <s> STAIRS 0.0000
-1.8325 <s> SWITCH 0.0000
-1.8325 <s> USER 0.0000
-1.8325 <s> WEATHER 0.0000
-1.8325 <s> WHERE 0.0000
-0.6021 A LOCATION 0.0000
-0.6021 A SERVICE -0.2218
-0.3010 ADMIN LOGIN 0.0000
-0.3010 BATHROOM </s> -0.3010
-0.3010 CREATE SERVICE -0.1249
-0.3010 DENTIST </s> -0.3010
-0.3010 DENTISTRY </s> -0.3010
-0.9031 DIRECTIONS </s> -0.3010
-0.4260 DIRECTIONS TO 0.0000
-0.3010 DISABLE </s> -0.3010
-0.3010 ELEVATOR </s> -0.3010
-0.3010 ENABLE </s> -0.3010
-0.3010 EXIT </s> -0.3010
-0.3010 FIND A -0.1761
-0.3010 FLOOR </s> -0.3010
-0.3010 GARAGE </s> -0.3010
-0.3010 GET DIRECTIONS 0.0000
-0.3010 HELLO </s> -0.3010
-0.3010 HELP </s> -0.3010
-0.3010 HEY KIOSK 0.0000
-0.3010 INTERPRETER </s> -0.3010
-0.3010 KIOSK </s> -0.3010
-0.6021 LANGUAGE </s> -0.3010
-0.6021 LANGUAGE INTERPRETER 0.0000
-0.3010 LOCATION </s> -0.3010
-0.3010 LOGIN </s> -0.3010
-0.3010 MANAGEMENT </s> -0.3010
-0.3010 MEDICINE </s> -0.3010
-0.3010 NEUROSCIENCE </s> -0.3010
-0.3010 NUCLEAR MEDICINE 0.0000
-0.3010 ORAL MEDICINE 0.0000
-0.3010 ORTHOPEDICS </s> -0.3010
-0.3010 PARKING GARAGE 0.0000
-0.3010 PLASTIC SURGERY 0.0000
-0.3010 RADIOLOGY </s> -0.3010
-0.3010 RAP </s> -0.3010
-0.3010 RELIGIOUS SERVICES 0.0000
-0.4260 REQUEST </s> -0.3010
-0.9031 REQUEST A -0.1761
-0.3010 RHEMUTOLOGY </s> -0.3010
-0.3010 SEARCH SERVICE -0.1249
-0.3010 SECURITY REQUEST -0.0969
-0.3010 SELECT LANGUAGE -0.1761
-0.7782 SERVICE </s> -0.3010
-0.4771 SERVICE REQUEST -0.0969
-0.3010 SERVICES </s> -0.3010
-0.3010 STAIRS </s> -0.3010
-0.3010 SURGERY </s> -0.3010
-0.3010 SWITCH FLOOR 0.0000
-0.7782 TO BATHROOM 0.0000
-0.7782 TO EXIT 0.0000
-0.7782 TO NEUROSCIENCE 0.0000
-0.3010 TODAY </s> -0.3010
-0.3010 USER MANAGEMENT 0.0000
-0.3010 WEATHER TODAY 0.0000
-0.3010 WHERE </s> -0.3010

\3-grams:
-0.3010 <s> ADMIN LOGIN
-0.3010 <s> CREATE SERVICE
-0.3010 <s> DENTIST </s>
-0.3010 <s> DENTISTRY </s>
-0.3010 <s> DISABLE </s>
-0.3010 <s> ELEVATOR </s>
-0.3010 <s> ENABLE </s>
-0.3010 <s> FIND A
-0.3010 <s> GET DIRECTIONS
-0.3010 <s> HELLO </s>
-0.3010 <s> HELP </s>
-0.3010 <s> HEY KIOSK
-0.3010 <s> LANGUAGE INTERPRETER
-0.3010 <s> NUCLEAR MEDICINE
-0.3010 <s> ORAL MEDICINE
-0.3010 <s> ORTHOPEDICS </s>
-0.3010 <s> PARKING GARAGE
-0.3010 <s> PLASTIC SURGERY
-0.3010 <s> RADIOLOGY </s>
-0.3010 <s> RAP </s>
-0.3010 <s> RELIGIOUS SERVICES
-0.3010 <s> REQUEST A
-0.3010 <s> RHEMUTOLOGY </s>
-0.3010 <s> SEARCH SERVICE
-0.3010 <s> SECURITY REQUEST
-0.3010 <s> SELECT LANGUAGE
-0.3010 <s> STAIRS </s>
-0.3010 <s> SWITCH FLOOR
-0.3010 <s> USER MANAGEMENT
-0.3010 <s> WEATHER TODAY
-0.3010 <s> WHERE </s>
-0.3010 A LOCATION </s>
-0.3010 A SERVICE </s>
-0.3010 ADMIN LOGIN </s>
-0.3010 CREATE SERVICE REQUEST
-0.7782 DIRECTIONS TO BATHROOM
-0.7782 DIRECTIONS TO EXIT
-0.7782 DIRECTIONS TO NEUROSCIENCE
-0.3010 FIND A LOCATION
-0.9031 GET DIRECTIONS </s>
-0.4260 GET DIRECTIONS TO
-0.3010 HEY KIOSK </s>
-0.3010 LANGUAGE INTERPRETER </s>
-0.3010 NUCLEAR MEDICINE </s>
-0.3010 ORAL MEDICINE </s>
-0.3010 PARKING GARAGE </s>
-0.3010 PLASTIC SURGERY </s>
-0.3010 RELIGIOUS SERVICES </s>
-0.3010 REQUEST A SERVICE
-0.3010 SEARCH SERVICE REQUEST
-0.3010 SECURITY REQUEST </s>
-0.3010 SELECT LANGUAGE </s>
-0.3010 SERVICE REQUEST </s>
-0.3010 SWITCH FLOOR </s>
-0.3010 TO BATHROOM </s>
-0.3010 TO EXIT </s>
-0.3010 TO NEUROSCIENCE </s>
-0.3010 USER MANAGEMENT </s>
-0.3010 WEATHER TODAY </s>

\end\
