Language model created by QuickLM on Tue Apr 24 19:09:43 EDT 2018
Copyright (c) 1996-2010 Carnegie Mellon University and Alexander I. Rudnicky

The model is in standard ARPA format, designed by Doug Paul while he was at MITRE.

The code that was used to produce this language model is available in Open Source.
Please visit http://www.speech.cs.cmu.edu/tools/ for more information

The (fixed) discount mass is 0.5. The backoffs are computed using the ratio method.
This model based on a corpus of 57 sentences and 96 words

\data\
ngram 1=96
ngram 2=157
ngram 3=109

\1-grams:
-0.9012 </s> -0.3010
-0.9012 <s> -0.2373
-2.3560 A -0.2972
-2.6571 ADMIN -0.3001
-2.6571 ANESTHESIA -0.2428
-2.6571 AU -0.3001
-2.6571 BATHROOM -0.2428
-2.6571 BELL -0.3001
-2.6571 BON -0.3001
-2.6571 BREAST -0.2982
-2.3560 CAFE -0.2428
-2.6571 CARE -0.2428
-2.1799 CENTER -0.2406
-2.6571 CHAPEL -0.2428
-2.6571 COLLECTION -0.2428
-2.6571 CONFERENCE -0.3001
-2.6571 CREATE -0.2982
-2.6571 DENTIST -0.2428
-2.6571 DENTISTRY -0.2428
-2.6571 DESK -0.2428
-2.6571 DIAGNOSTIC -0.3001
-2.0550 DIRECTIONS -0.2395
-2.6571 DISABLE -0.2428
-2.6571 DUNCAN -0.3001
-2.6571 EAR -0.3001
-2.6571 ELEVATOR -0.2428
-2.6571 ENABLE -0.2428
-2.6571 ENDOSCOPY -0.2428
-2.6571 EVALUATION -0.2428
-2.6571 EXIT -0.2428
-2.6571 FINANCIAL -0.2991
-2.6571 FIND -0.2991
-2.6571 FLOOR -0.2428
-2.6571 GARAGE -0.2428
-2.6571 GARDEN -0.2991
-2.0550 GET -0.2972
-2.6571 GIFT -0.3001
-2.6571 GYNECOLOGY -0.2428
-2.6571 HELLO -0.2428
-2.6571 HELP -0.2428
-2.6571 HEY -0.3001
-2.6571 HUB -0.2428
-2.6571 INFORMATION -0.3001
-2.6571 INNOVATION -0.3001
-2.6571 INTERPRETER -0.2428
-2.6571 JEN -0.2982
-2.6571 KESSLER -0.3001
-2.6571 KIOSK -0.2428
-2.6571 LAB -0.2428
-2.3560 LANGUAGE -0.2417
-2.6571 LEE -0.3001
-2.6571 LIBRARY -0.2428
-2.6571 LOCATION -0.2428
-2.6571 LOGIN -0.2428
-2.6571 MANAGEMENT -0.2428
-2.3560 MEDICINE -0.2428
-2.6571 MRI -0.2428
-2.6571 NEUROSCIENCE -0.2428
-2.6571 NOSE -0.3001
-2.6571 NUCLEAR -0.2991
-2.6571 ORAL -0.2991
-2.6571 ORTHOPEDICS -0.2428
-2.3560 OUTPATIENT -0.2991
-2.6571 PAIN -0.2428
-2.6571 PARKING -0.3001
-2.6571 PATIENT -0.3001
-2.6571 PHARMACY -0.2428
-2.6571 PLASTIC -0.3001
-2.6571 PREOPERATIVE -0.3001
-2.6571 PRIMARY -0.3001
-2.6571 RADIOLOGY -0.2428
-2.6571 RAP -0.2428
-2.6571 REHAB -0.2428
-2.6571 REHABILITATION -0.2428
-2.6571 REID -0.3001
-2.6571 RELIGIOUS -0.2991
-2.0550 REQUEST -0.2406
-2.6571 RHEMUTOLOGY -0.2428
-2.6571 ROOM -0.2428
-2.6571 SEARCH -0.2982
-2.6571 SECURITY -0.2972
-2.6571 SELECT -0.2991
-2.1799 SERVICE -0.2384
-2.3560 SERVICES -0.2428
-2.6571 SHOP -0.2428
-2.6571 SPECIMEN -0.3001
-2.6571 STAIRS -0.2428
-2.6571 SURGERY -0.2428
-2.6571 SWITCH -0.3001
-2.6571 THROAT -0.2428
-2.6571 TODAY -0.2428
-2.6571 USER -0.3001
-2.6571 VASCULAR -0.3001
-2.6571 WEATHER -0.3001
-2.6571 WEINER -0.2982
-2.6571 WHERE -0.2428

\2-grams:
-2.0569 <s> ADMIN 0.0000
-2.0569 <s> ANESTHESIA 0.0000
-2.0569 <s> AU 0.0000
-2.0569 <s> CAFE 0.0000
-2.0569 <s> CHAPEL 0.0000
-2.0569 <s> CREATE 0.0000
-2.0569 <s> DENTIST 0.0000
-2.0569 <s> DENTISTRY 0.0000
-2.0569 <s> DISABLE 0.0000
-2.0569 <s> DUNCAN 0.0000
-2.0569 <s> EAR 0.0000
-2.0569 <s> ELEVATOR 0.0000
-2.0569 <s> ENABLE 0.0000
-2.0569 <s> ENDOSCOPY 0.0000
-2.0569 <s> FIND 0.0000
-2.0569 <s> GARDEN 0.0000
-1.4548 <s> GET 0.0000
-2.0569 <s> GIFT 0.0000
-2.0569 <s> GYNECOLOGY 0.0000
-2.0569 <s> HELLO 0.0000
-2.0569 <s> HELP 0.0000
-2.0569 <s> HEY 0.0000
-2.0569 <s> INFORMATION 0.0000
-2.0569 <s> INNOVATION 0.0000
-2.0569 <s> JEN 0.0000
-2.0569 <s> KESSLER 0.0000
-2.0569 <s> LANGUAGE -0.1761
-2.0569 <s> LEE 0.0000
-2.0569 <s> MRI 0.0000
-2.0569 <s> NUCLEAR 0.0000
-2.0569 <s> ORAL 0.0000
-2.0569 <s> ORTHOPEDICS 0.0000
-1.7559 <s> OUTPATIENT 0.0000
-2.0569 <s> PARKING 0.0000
-2.0569 <s> PATIENT 0.0000
-2.0569 <s> PLASTIC 0.0000
-2.0569 <s> RADIOLOGY 0.0000
-2.0569 <s> RAP 0.0000
-2.0569 <s> REHAB 0.0000
-2.0569 <s> REHABILITATION 0.0000
-2.0569 <s> RELIGIOUS 0.0000
-2.0569 <s> REQUEST -0.2430
-2.0569 <s> RHEMUTOLOGY 0.0000
-2.0569 <s> SEARCH 0.0000
-2.0569 <s> SECURITY 0.0000
-2.0569 <s> SELECT 0.0000
-2.0569 <s> STAIRS 0.0000
-2.0569 <s> SWITCH 0.0000
-2.0569 <s> USER 0.0000
-2.0569 <s> VASCULAR 0.0000
-2.0569 <s> WEATHER 0.0000
-2.0569 <s> WEINER 0.0000
-2.0569 <s> WHERE 0.0000
-0.6021 A LOCATION 0.0000
-0.6021 A SERVICE -0.2218
-0.3010 ADMIN LOGIN 0.0000
-0.3010 ANESTHESIA </s> -0.3010
-0.3010 AU BON 0.0000
-0.3010 BATHROOM </s> -0.3010
-0.3010 BELL BREAST 0.0000
-0.3010 BON PAIN 0.0000
-0.3010 BREAST CENTER -0.2218
-0.3010 CAFE </s> -0.3010
-0.3010 CARE </s> -0.3010
-0.7782 CENTER </s> -0.3010
-0.7782 CENTER PREOPERATIVE 0.0000
-0.7782 CENTER PRIMARY 0.0000
-0.3010 CHAPEL </s> -0.3010
-0.3010 COLLECTION </s> -0.3010
-0.3010 CONFERENCE ROOM 0.0000
-0.3010 CREATE SERVICE -0.1249
-0.3010 DENTIST </s> -0.3010
-0.3010 DENTISTRY </s> -0.3010
-0.3010 DESK </s> -0.3010
-0.3010 DIAGNOSTIC LAB 0.0000
-0.9031 DIRECTIONS </s> -0.3010
-0.9031 DIRECTIONS BATHROOM 0.0000
-0.9031 DIRECTIONS EXIT 0.0000
-0.9031 DIRECTIONS NEUROSCIENCE 0.0000
-0.3010 DISABLE </s> -0.3010
-0.3010 DUNCAN REID 0.0000
-0.3010 EAR NOSE 0.0000
-0.3010 ELEVATOR </s> -0.3010
-0.3010 ENABLE </s> -0.3010
-0.3010 ENDOSCOPY </s> -0.3010
-0.3010 EVALUATION </s> -0.3010
-0.3010 EXIT </s> -0.3010
-0.3010 FINANCIAL SERVICES 0.0000
-0.3010 FIND A -0.1761
-0.3010 FLOOR </s> -0.3010
-0.3010 GARAGE </s> -0.3010
-0.3010 GARDEN CAFE 0.0000
-0.3010 GET DIRECTIONS 0.0000
-0.3010 GIFT SHOP 0.0000
-0.3010 GYNECOLOGY </s> -0.3010
-0.3010 HELLO </s> -0.3010
-0.3010 HELP </s> -0.3010
-0.3010 HEY KIOSK 0.0000
-0.3010 HUB </s> -0.3010
-0.3010 INFORMATION DESK 0.0000
-0.3010 INNOVATION HUB 0.0000
-0.3010 INTERPRETER </s> -0.3010
-0.3010 JEN CENTER -0.2218
-0.3010 KESSLER LIBRARY 0.0000
-0.3010 KIOSK </s> -0.3010
-0.3010 LAB </s> -0.3010
-0.6021 LANGUAGE </s> -0.3010
-0.6021 LANGUAGE INTERPRETER 0.0000
-0.3010 LEE BELL 0.0000
-0.3010 LIBRARY </s> -0.3010
-0.3010 LOCATION </s> -0.3010
-0.3010 LOGIN </s> -0.3010
-0.3010 MANAGEMENT </s> -0.3010
-0.3010 MEDICINE </s> -0.3010
-0.3010 MRI </s> -0.3010
-0.3010 NEUROSCIENCE </s> -0.3010
-0.3010 NOSE THROAT 0.0000
-0.3010 NUCLEAR MEDICINE 0.0000
-0.3010 ORAL MEDICINE 0.0000
-0.3010 ORTHOPEDICS </s> -0.3010
-0.6021 OUTPATIENT PHARMACY 0.0000
-0.6021 OUTPATIENT SPECIMEN 0.0000
-0.3010 PAIN </s> -0.3010
-0.3010 PARKING GARAGE 0.0000
-0.3010 PATIENT FINANCIAL 0.0000
-0.3010 PHARMACY </s> -0.3010
-0.3010 PLASTIC SURGERY 0.0000
-0.3010 PREOPERATIVE EVALUATION 0.0000
-0.3010 PRIMARY CARE 0.0000
-0.3010 RADIOLOGY </s> -0.3010
-0.3010 RAP </s> -0.3010
-0.3010 REHAB </s> -0.3010
-0.3010 REHABILITATION </s> -0.3010
-0.3010 REID CONFERENCE 0.0000
-0.3010 RELIGIOUS SERVICES 0.0000
-0.4260 REQUEST </s> -0.3010
-0.9031 REQUEST A -0.1761
-0.3010 RHEMUTOLOGY </s> -0.3010
-0.3010 ROOM </s> -0.3010
-0.3010 SEARCH SERVICE -0.1249
-0.3010 SECURITY REQUEST -0.0969
-0.3010 SELECT LANGUAGE -0.1761
-0.7782 SERVICE </s> -0.3010
-0.4771 SERVICE REQUEST -0.0969
-0.3010 SERVICES </s> -0.3010
-0.3010 SHOP </s> -0.3010
-0.3010 SPECIMEN COLLECTION 0.0000
-0.3010 STAIRS </s> -0.3010
-0.3010 SURGERY </s> -0.3010
-0.3010 SWITCH FLOOR 0.0000
-0.3010 THROAT </s> -0.3010
-0.3010 TODAY </s> -0.3010
-0.3010 USER MANAGEMENT 0.0000
-0.3010 VASCULAR DIAGNOSTIC 0.0000
-0.3010 WEATHER TODAY 0.0000
-0.3010 WEINER CENTER -0.2218
-0.3010 WHERE </s> -0.3010

\3-grams:
-0.3010 <s> ADMIN LOGIN
-0.3010 <s> ANESTHESIA </s>
-0.3010 <s> AU BON
-0.3010 <s> CAFE </s>
-0.3010 <s> CHAPEL </s>
-0.3010 <s> CREATE SERVICE
-0.3010 <s> DENTIST </s>
-0.3010 <s> DENTISTRY </s>
-0.3010 <s> DISABLE </s>
-0.3010 <s> DUNCAN REID
-0.3010 <s> EAR NOSE
-0.3010 <s> ELEVATOR </s>
-0.3010 <s> ENABLE </s>
-0.3010 <s> ENDOSCOPY </s>
-0.3010 <s> FIND A
-0.3010 <s> GARDEN CAFE
-0.3010 <s> GET DIRECTIONS
-0.3010 <s> GIFT SHOP
-0.3010 <s> GYNECOLOGY </s>
-0.3010 <s> HELLO </s>
-0.3010 <s> HELP </s>
-0.3010 <s> HEY KIOSK
-0.3010 <s> INFORMATION DESK
-0.3010 <s> INNOVATION HUB
-0.3010 <s> JEN CENTER
-0.3010 <s> KESSLER LIBRARY
-0.3010 <s> LANGUAGE INTERPRETER
-0.3010 <s> LEE BELL
-0.3010 <s> MRI </s>
-0.3010 <s> NUCLEAR MEDICINE
-0.3010 <s> ORAL MEDICINE
-0.3010 <s> ORTHOPEDICS </s>
-0.6021 <s> OUTPATIENT PHARMACY
-0.6021 <s> OUTPATIENT SPECIMEN
-0.3010 <s> PARKING GARAGE
-0.3010 <s> PATIENT FINANCIAL
-0.3010 <s> PLASTIC SURGERY
-0.3010 <s> RADIOLOGY </s>
-0.3010 <s> RAP </s>
-0.3010 <s> REHAB </s>
-0.3010 <s> REHABILITATION </s>
-0.3010 <s> RELIGIOUS SERVICES
-0.3010 <s> REQUEST A
-0.3010 <s> RHEMUTOLOGY </s>
-0.3010 <s> SEARCH SERVICE
-0.3010 <s> SECURITY REQUEST
-0.3010 <s> SELECT LANGUAGE
-0.3010 <s> STAIRS </s>
-0.3010 <s> SWITCH FLOOR
-0.3010 <s> USER MANAGEMENT
-0.3010 <s> VASCULAR DIAGNOSTIC
-0.3010 <s> WEATHER TODAY
-0.3010 <s> WEINER CENTER
-0.3010 <s> WHERE </s>
-0.3010 A LOCATION </s>
-0.3010 A SERVICE </s>
-0.3010 ADMIN LOGIN </s>
-0.3010 AU BON PAIN
-0.3010 BELL BREAST CENTER
-0.3010 BON PAIN </s>
-0.3010 BREAST CENTER </s>
-0.3010 CENTER PREOPERATIVE EVALUATION
-0.3010 CENTER PRIMARY CARE
-0.3010 CONFERENCE ROOM </s>
-0.3010 CREATE SERVICE REQUEST
-0.3010 DIAGNOSTIC LAB </s>
-0.3010 DIRECTIONS BATHROOM </s>
-0.3010 DIRECTIONS EXIT </s>
-0.3010 DIRECTIONS NEUROSCIENCE </s>
-0.3010 DUNCAN REID CONFERENCE
-0.3010 EAR NOSE THROAT
-0.3010 FINANCIAL SERVICES </s>
-0.3010 FIND A LOCATION
-0.3010 GARDEN CAFE </s>
-0.9031 GET DIRECTIONS </s>
-0.9031 GET DIRECTIONS BATHROOM
-0.9031 GET DIRECTIONS EXIT
-0.9031 GET DIRECTIONS NEUROSCIENCE
-0.3010 GIFT SHOP </s>
-0.3010 HEY KIOSK </s>
-0.3010 INFORMATION DESK </s>
-0.3010 INNOVATION HUB </s>
-0.3010 JEN CENTER PRIMARY
-0.3010 KESSLER LIBRARY </s>
-0.3010 LANGUAGE INTERPRETER </s>
-0.3010 LEE BELL BREAST
-0.3010 NOSE THROAT </s>
-0.3010 NUCLEAR MEDICINE </s>
-0.3010 ORAL MEDICINE </s>
-0.3010 OUTPATIENT PHARMACY </s>
-0.3010 OUTPATIENT SPECIMEN COLLECTION
-0.3010 PARKING GARAGE </s>
-0.3010 PATIENT FINANCIAL SERVICES
-0.3010 PLASTIC SURGERY </s>
-0.3010 PREOPERATIVE EVALUATION </s>
-0.3010 PRIMARY CARE </s>
-0.3010 REID CONFERENCE ROOM
-0.3010 RELIGIOUS SERVICES </s>
-0.3010 REQUEST A SERVICE
-0.3010 SEARCH SERVICE REQUEST
-0.3010 SECURITY REQUEST </s>
-0.3010 SELECT LANGUAGE </s>
-0.3010 SERVICE REQUEST </s>
-0.3010 SPECIMEN COLLECTION </s>
-0.3010 SWITCH FLOOR </s>
-0.3010 USER MANAGEMENT </s>
-0.3010 VASCULAR DIAGNOSTIC LAB
-0.3010 WEATHER TODAY </s>
-0.3010 WEINER CENTER PREOPERATIVE

\end\
